-4.99
-2.71
1.09
-2.11
1.03
1.73
-1.97
0.89
0.23
1.27
-1.73
-4.09
-1.37
4.31
-2.27
-4.39
2.81
-1.63
0.79
-1.99
2.83
-1.91
-1.63
-0.07
0.41
-3.13
2.63
1.99
4.19
-0.13
1.63
-1.27
-0.67
3.53
-1.39
0.97
-0.11
-4.33
2.51
-0.83
-0.79
3.47
-4.31
0.05
1.57
1.49
1.31
-3.37
-2.39
0.23
-1.93
-0.02
-4.49
4.67
-1.07
1.73
4.43
0.67
-3.83
-3.11
0.97
4.57
0.79
4.43
-0.89
-2.27
1.79
1.93
3.83
-2.63
0.61
-0.13
-4.61
-0.02
-3.97
-4.63
-4.31
0.41
0.89
4.31
3.89
-2.63
-2.69
-2.33
-1.31
3.59
-4.39
-2.23
-0.11
-1.31
-1.07
-2.69
2.83
1.01
3.73
4.67
0.59
-1.49
2.83
2.41
-4.21
-4.49
-0.61
3.07
-3.83
0.61
-0.61
-1.03
0.05
-4.19
-3.97
-4.21
-4.39
4.87
1.39
0.13
-0.97
3.89
-3.07
-0.59
3.89
2.69
4.57
-2.71
3.97
2.11
1.81
4.79
4.39
-4.49
-1.09
-3.07
-0.43
1.39
-4.19
1.27
2.77
-1.91
-2.23
1.97
1.63
-3.89
1.57
-0.07
-2.51
-1.49
2.29
-3.83
-4.39
4.49
2.33
0.41
-1.63
1.37
-2.63
3.07
-1.31
-0.37
0.41
3.79
4.87
1.39
-2.23
0.03
2.27
-4.01
3.47
0.19
0.41
-1.91
2.41
-0.03
-2.41
2.51
-4.01
3.83
4.99
0.61
-3.79
-2.63
0.07
-4.67
-1.99
2.39
-0.37
-0.07
-3.07
1.13
-3.73
4.63
-3.83
-0.17
-4.01
0.31
-1.07
-1.49
1.73
4.19
-0.43
1.03
3.31
0.13
2.69
1.57
-0.73
-0.41
-1.39
-3.79
-0.19
-3.83
-2.39
1.99
1.81
-2.83
-3.49
0.97
4.91
2.41
0.19
3.83
3.89
2.23
-3.83
0.13
-3.07
-1.79
-0.83
3.31
4.87
1.31
-1.73
-0.89
1.27
4.33
3.79
0.37
4.61
-2.71
-4.61
-0.23
0.53
0.67
2.39
-0.61
1.49
-0.17
-2.57
-3.31
1.79
3.31
-1.01
1.99
3.97
0.79
-0.53
3.97
-3.31
0.79
-0.61
-4.61
-3.89
-0.97
2.33
-4.31
3.31
-3.31
2.11
1.49
-1.93
-2.51
-2.93
-1.67
0.23
-2.69
-1.81
0.11
4.87
-0.37
0.29
4.91
4.39
-1.09
-1.57
-0.43
-4.49
0.23
3.79
4.67
-1.03
-1.91
1.57
1.99
0.43
-1.39
0.59
-4.79
-0.03
1.97
-1.57
3.37
3.31
-0.43
4.09
1.13
-4.43
-0.29
-3.97
3.37
-3.89
4.33
4.57
-1.03
-4.31
-1.63
-0.79
-1.09
-1.79
-0.83
-0.73
3.11
0.13
-4.99
-3.11
-4.19
-0.19
2.23
-0.67
0.67
2.29
1.81
-3.13
-1.13
-2.27
4.91
-1.27
-0.13
-0.89
-4.91
4.39
2.71
-0.97
2.29
0.41
0.02
0.02
0.13
-1.79
0.73
0.89
-1.03
4.91
-1.27
-2.51
3.37
-0.02
-1.13
2.57
-3.73
0.11
-1.03
0.47
-2.71
1.13
-1.67
1.63
-3.67
0.59
2.33
3.37
-4.87
-3.79
-3.49
1.81
-1.49
0.61
0.59
4.63
3.13
2.11
-4.99
1.93
-3.47
-3.47
4.39
-1.49
2.71
3.37
3.59
1.13
2.29
-2.69
2.83
0.13
2.83
-0.19
-3.79
0.79
-1.03
-0.43
1.03
0.05
-2.63
1.57
-4.21
0.79
1.91
2.93
0.43
-3.59
1.09
-0.59
2.57
3.17
4.63
-1.91
-2.11
2.39
-0.37
2.71
-2.63
-1.63
-0.73
0.53
1.99
-4.87
-2.77
0.37
1.91
3.53
2.39
-3.47
-4.63
-3.53
-0.11
-4.99
-1.01
2.27
3.67
-1.31
3.89
1.97
2.51
1.67
3.59
-4.21
4.09
0.11
-2.51
-0.59
2.63
0.05
0.11
-2.27
-2.11
-4.63
3.97
1.09
0.29
1.99
0.11
-2.83
-1.63
-2.57
4.09
-3.67
2.23
-0.29
2.71
-1.39
1.97
2.51
4.39
3.73
-2.11
-0.71
-4.43
3.49
-2.29
3.13
3.67
-0.19
2.11
-1.57
1.13
2.77
3.07
1.73
-2.93
4.49
1.97
-0.23
0.41
-3.13
-1.79
-1.27
2.77
0.23
-0.47
-0.07
4.31
-4.63
-1.63
-4.09
-3.67
-4.39
-1.91
-1.13
3.59
2.29
0.83
1.97
-0.59
2.69
0.97
4.63
-0.37
1.99
0.59
-4.87
1.01
-2.83
4.01
-2.81
-3.59
1.93
2.51
-1.91
4.01
-0.02
0.23
-4.87
4.91
4.33
-3.37
1.99
-1.91
1.91
-1.01
0.47
-1.13
-1.51
2.27
3.47
-4.49
4.79
-2.23
0.83
-1.49
-0.53
-0.03
2.81
-0.97
0.41
-2.81
2.71
-0.41
-1.63
-0.61
-4.79
4.19
-0.19
-0.37
3.89
2.23
-4.87
4.39
1.99
-0.59
0.11
-1.31
1.09
-4.91
4.01
-0.07
-2.77
1.81
-0.97
4.09
3.67
2.81
-0.07
0.71
1.13
-0.29
-2.27
0.47
2.83
-1.63
-0.89
4.57
-1.97
2.27
-4.61
-2.27
-1.13
0.47
1.31
-1.79
-2.93
-1.07
4.33
0.71
0.73
4.21
-1.81
0.31
3.11
4.57
0.23
-0.83
1.73
-4.61
0.73
2.71
1.13
-2.57
3.59
2.71
-1.01
1.67
-4.99
-3.31
0.11
2.39
-2.39
2.51
1.97
0.59
-0.53
1.97
0.13
4.57
0.13
-2.27
-4.21
-4.67
2.83
0.89
-1.09
-2.11
1.81
0.23
3.47
0.23
3.97
-2.69
1.57
4.21
4.33
3.07
1.37
3.79
-3.17
-1.97
4.87
-1.09
4.57
-2.77
-3.79
-1.73
1.67
0.97
-0.13
4.63
1.51
1.39
-2.29
1.31
-1.73
-4.19
3.13
-0.13
-4.33
1.27
-2.11
2.57
-2.29
1.63
-2.51
-0.37
-2.23
-4.61
-3.47
-4.01
0.59
-0.83
-3.83
-0.11
-4.31
4.57
-4.87
1.27
3.31
3.07
3.79
-0.43
4.99
0.03
-1.27
-0.53
-4.87
-4.79
-4.33
-0.37
2.57
-3.83
0.17
2.33
1.63
3.37
-1.91
-2.83
-1.31
1.81
-1.57
-2.51
-0.11
-3.79
1.39
-3.37
-2.63
-0.37
-1.27
-4.39
-3.73
-0.02
0.79
-0.89
-1.51
-0.23
-0.13
-1.79
0.97
-4.61
1.37
-1.67
2.33
4.01
-3.83
0.53
-4.67
4.33
-2.81
-3.49
-3.59
-0.59
-3.49
4.39
-2.77
-3.89
4.61
1.37
0.19
1.07
1.07
0.05
-0.03
-0.53
-1.99
4.49
1.03
-0.31
-0.59
-0.89
-1.99
-0.73
0.31
2.29
2.63
-2.81
0.23
-1.07
0.41
3.59
-2.83
-2.27
-0.37
4.99
2.41
1.63
-3.89
-2.51
4.43
-3.37
-1.73
4.49
0.59
1.97
-4.49
0.89
-3.07
-4.91
1.97
-0.71
3.73
4.01
-4.19
1.13
-4.33
0.73
2.93
-0.79
-3.79
2.93
-1.07
1.97
1.07
1.67
3.79
-1.09
-0.23
4.33
-4.09
-0.11
-4.61
-4.33
-0.07
1.93
4.91
0.53
-2.27
-1.57
2.27
-2.93
-4.43
4.57
2.77
3.47
-0.71
4.49
-3.73
-0.23
-0.71
-4.19
-2.33
0.13
1.39
-4.33
-3.67
2.71
3.53
4.57
4.61
-1.67
2.11
0.89
2.83
-3.49
-3.07
-2.27
0.07
-2.69
1.37
-3.53
-4.39
-3.73
0.71
-1.97
0.11
0.07
2.29
-3.31
-4.09
3.59
1.49
-1.99
-0.79
-0.02
4.99
-2.33
-3.37
-1.07
0.11
-1.63
4.21
-3.89
-1.63
3.07
-3.79
1.37
2.39
-2.83
-3.73
1.03
-0.43
-4.91
-2.39
-0.97
4.19
-0.29
4.43
2.11
4.63
-4.33
-3.37
4.79
4.91
-2.69
1.31
-2.33
2.39
3.73
3.37
-4.33
-1.09
-4.61
-2.81
2.51
-1.93
4.33
-3.83
-0.67
-2.63
0.89
-0.11
-0.89
-3.73
-0.79
2.63
-3.83
3.53
2.41
1.39
3.11
0.89
-0.61
4.91
1.51
-3.67
0.71
-3.17
-0.43
-4.19
-0.79
3.59
-4.79
3.47
2.71
-0.37
0.61
0.89
1.39
-4.21
0.67
-2.41
-0.05
-4.33
2.29
0.53
0.83
1.07
4.87
4.99
4.19
-4.01
0.19
-4.87
4.31
-0.61
-4.87
-2.29
-4.31
-0.03
2.71
-2.11
-3.53
-4.09
-4.63
-2.83
-1.73
0.37
0.11
1.81
1.73
1.79
3.73
-4.79
-2.57
-0.23
2.33
3.31
0.13
-4.79
-0.79
-0.29
0.43
-4.63
1.03
-3.97
4.87
-2.57
1.37
-1.39
1.51
-4.61
-3.13
1.57
2.41
-4.63
-2.57
-1.97
-0.29
2.39
0.59
-1.03
-2.69
-3.59
-2.83
2.29
4.21
-0.47
-1.99
-3.67
4.87
4.67
3.97
2.29
1.93
1.37
1.31
-1.99
-1.51
0.29
-2.69